FANN_FLO_2.1
num_layers=3
learning_rate=0.700000
connection_rate=1.000000
network_type=0
learning_momentum=0.000000
training_algorithm=2
train_error_function=1
train_stop_function=0
cascade_output_change_fraction=0.010000
quickprop_decay=-0.000100
quickprop_mu=1.750000
rprop_increase_factor=1.200000
rprop_decrease_factor=0.500000
rprop_delta_min=0.000000
rprop_delta_max=50.000000
rprop_delta_zero=0.100000
cascade_output_stagnation_epochs=12
cascade_candidate_change_fraction=0.010000
cascade_candidate_stagnation_epochs=12
cascade_max_out_epochs=150
cascade_max_cand_epochs=150
cascade_num_candidate_groups=2
bit_fail_limit=3.49999994039535522461e-01
cascade_candidate_limit=1.00000000000000000000e+03
cascade_weight_multiplier=4.00000005960464477539e-01
cascade_activation_functions_count=10
cascade_activation_functions=3 5 7 8 10 11 14 15 16 17 
cascade_activation_steepnesses_count=4
cascade_activation_steepnesses=2.50000000000000000000e-01 5.00000000000000000000e-01 7.50000000000000000000e-01 1.00000000000000000000e+00 
layer_sizes=27 14 8 
scale_included=0
neurons (num_inputs, activation_function, activation_steepness)=(0, 0, 0.00000000000000000000e+00) (0, 0, 0.00000000000000000000e+00) (0, 0, 0.00000000000000000000e+00) (0, 0, 0.00000000000000000000e+00) (0, 0, 0.00000000000000000000e+00) (0, 0, 0.00000000000000000000e+00) (0, 0, 0.00000000000000000000e+00) (0, 0, 0.00000000000000000000e+00) (0, 0, 0.00000000000000000000e+00) (0, 0, 0.00000000000000000000e+00) (0, 0, 0.00000000000000000000e+00) (0, 0, 0.00000000000000000000e+00) (0, 0, 0.00000000000000000000e+00) (0, 0, 0.00000000000000000000e+00) (0, 0, 0.00000000000000000000e+00) (0, 0, 0.00000000000000000000e+00) (0, 0, 0.00000000000000000000e+00) (0, 0, 0.00000000000000000000e+00) (0, 0, 0.00000000000000000000e+00) (0, 0, 0.00000000000000000000e+00) (0, 0, 0.00000000000000000000e+00) (0, 0, 0.00000000000000000000e+00) (0, 0, 0.00000000000000000000e+00) (0, 0, 0.00000000000000000000e+00) (0, 0, 0.00000000000000000000e+00) (0, 0, 0.00000000000000000000e+00) (0, 0, 0.00000000000000000000e+00) (27, 5, 5.00000000000000000000e-01) (27, 5, 5.00000000000000000000e-01) (27, 5, 5.00000000000000000000e-01) (27, 5, 5.00000000000000000000e-01) (27, 5, 5.00000000000000000000e-01) (27, 5, 5.00000000000000000000e-01) (27, 5, 5.00000000000000000000e-01) (27, 5, 5.00000000000000000000e-01) (27, 5, 5.00000000000000000000e-01) (27, 5, 5.00000000000000000000e-01) (27, 5, 5.00000000000000000000e-01) (27, 5, 5.00000000000000000000e-01) (27, 5, 5.00000000000000000000e-01) (0, 5, 0.00000000000000000000e+00) (14, 5, 5.00000000000000000000e-01) (14, 5, 5.00000000000000000000e-01) (14, 5, 5.00000000000000000000e-01) (14, 5, 5.00000000000000000000e-01) (14, 5, 5.00000000000000000000e-01) (14, 5, 5.00000000000000000000e-01) (14, 5, 5.00000000000000000000e-01) (0, 5, 0.00000000000000000000e+00) 
connections (connected_to_neuron, weight)=(0, -9.00590181350708007812e-01) (1, -4.60024118423461914062e+00) (2, -1.36218976974487304688e+00) (3, 3.25332021713256835938e+00) (4, -7.18585300445556640625e+00) (5, -1.09583673477172851562e+01) (6, -2.06798458099365234375e+00) (7, -6.31864786148071289062e+00) (8, 7.55135154724121093750e+00) (9, -7.83094406127929687500e+00) (10, 1.12956345081329345703e+00) (11, 1.76567065715789794922e+00) (12, -6.31347227096557617188e+00) (13, -3.44189941883087158203e-01) (14, -8.13357353210449218750e-01) (15, 2.31555199623107910156e+00) (16, 2.10728588104248046875e+01) (17, -2.00113356113433837891e-01) (18, 1.22781649231910705566e-01) (19, 2.05978363752365112305e-01) (20, 3.82434701919555664062e+00) (21, 7.19244480133056640625e-02) (22, 1.62350630760192871094e+00) (23, -2.24780368804931640625e+01) (24, -8.06926441192626953125e+00) (25, 2.90773797035217285156e+00) (26, -3.10967057943344116211e-01) (0, -3.22534263134002685547e-01) (1, 2.19441604614257812500e+01) (2, -8.96785736083984375000e+00) (3, -5.84031462669372558594e-01) (4, 2.07011866569519042969e+00) (5, 4.23284709453582763672e-01) (6, 1.98398532867431640625e+01) (7, 2.24531917572021484375e+01) (8, -6.45241022109985351562e+00) (9, 2.21235408782958984375e+01) (10, 7.80274658203125000000e+01) (11, 5.25067424774169921875e+00) (12, 5.88810396194458007812e+00) (13, 2.12270021438598632812e+00) (14, -7.35354804992675781250e+00) (15, -2.31692428588867187500e+01) (16, -3.87046241760253906250e+01) (17, -2.71940302848815917969e+00) (18, -4.22623729705810546875e+00) (19, -2.45618224143981933594e+00) (20, -1.62770347595214843750e+01) (21, -3.31830825805664062500e+01) (22, 5.63457984924316406250e+01) (23, -1.06869602203369140625e+01) (24, -4.24558210372924804688e+00) (25, 4.09969520568847656250e+01) (26, 1.78839772939682006836e-01) (0, 1.02705615234375000000e+03) (1, 1.84586277008056640625e+01) (2, 1.49991992187500000000e+03) (3, 4.68306617736816406250e+01) (4, 9.42391276359558105469e-01) (5, 4.15526294708251953125e+00) (6, -7.26703739166259765625e+00) (7, 1.48303552246093750000e+03) (8, 5.76664268970489501953e-01) (9, 9.45845489501953125000e+01) (10, 3.66520729064941406250e+01) (11, -6.06642990112304687500e+01) (12, 5.77324890136718750000e+02) (13, 6.64965152740478515625e-01) (14, 1.89013538360595703125e+01) (15, -3.16776275634765625000e-01) (16, -1.65108919143676757812e+00) (17, 6.19601666927337646484e-01) (18, -8.43299254775047302246e-02) (19, 3.07732224464416503906e+00) (20, 4.79407280683517456055e-01) (21, 2.48583374023437500000e+01) (22, 6.71383738517761230469e-01) (23, 1.49201586914062500000e+03) (24, 1.50000000000000000000e+03) (25, -4.95972412109375000000e+02) (26, 7.72175490856170654297e-01) (0, -4.44613170623779296875e+00) (1, 4.66450538635253906250e+01) (2, 6.40282869338989257812e-01) (3, -7.95473718643188476562e+00) (4, -2.08016948699951171875e+01) (5, 1.87865554809570312500e+02) (6, 3.35661530494689941406e+00) (7, 1.03060516357421875000e+02) (8, -5.09237098693847656250e+00) (9, -6.24060869216918945312e+00) (10, -7.09341278076171875000e+01) (11, -7.15480566024780273438e-01) (12, 6.79297447204589843750e+00) (13, 2.24010753631591796875e+00) (14, -1.90901660919189453125e+00) (15, 1.09909944534301757812e+01) (16, 5.16826486587524414062e+00) (17, -7.18525028228759765625e+00) (18, -2.56181621551513671875e+00) (19, 2.16474390029907226562e+00) (20, -4.24834403991699218750e+01) (21, 1.86797618865966796875e+01) (22, 3.98077911376953125000e+02) (23, 1.63073089599609375000e+02) (24, 1.21627864837646484375e+01) (25, 3.68351325988769531250e+01) (26, 2.36048027873039245605e-01) (0, -5.73634243011474609375e+00) (1, -2.71929969787597656250e+01) (2, -8.63615334033966064453e-01) (3, 1.36922025680541992188e+01) (4, 2.93953388929367065430e-01) (5, 4.53412361145019531250e+01) (6, 5.22058105468750000000e+00) (7, 4.04341220855712890625e-01) (8, -1.06637287139892578125e+01) (9, -7.60918045043945312500e+01) (10, -7.19087677001953125000e+01) (11, 3.12996520996093750000e+01) (12, -4.24821815490722656250e+01) (13, 2.93721169233322143555e-01) (14, -1.61274254322052001953e+00) (15, -3.45930786132812500000e+01) (16, 8.84596481323242187500e+01) (17, -2.06317510455846786499e-02) (18, -5.98061037063598632812e+00) (19, -2.64748245477676391602e-01) (20, 1.89245166778564453125e+01) (21, -2.87874664306640625000e+02) (22, -4.22556579589843750000e+02) (23, 8.35751190185546875000e+01) (24, -2.25116806030273437500e+01) (25, 6.28618164062500000000e+01) (26, -3.45366328954696655273e-01) (0, -1.29541931152343750000e+01) (1, -5.03267364501953125000e+01) (2, -3.31173598766326904297e-01) (3, -1.75047129392623901367e-01) (4, -9.13365632295608520508e-02) (5, 2.26651453971862792969e+00) (6, -4.28396892547607421875e+00) (7, -1.41320240497589111328e+00) (8, 1.54810154438018798828e+00) (9, 2.34857826232910156250e+01) (10, -5.30455245971679687500e+01) (11, 2.46649017333984375000e+01) (12, -6.42498016357421875000e+00) (13, 5.43549321591854095459e-02) (14, -1.20063600540161132812e+01) (15, -7.19050085172057151794e-03) (16, -1.94275646209716796875e+01) (17, -2.53095000982284545898e-01) (18, -2.69500553607940673828e-01) (19, 1.15715703964233398438e+01) (20, -1.96463851928710937500e+01) (21, -3.74227619171142578125e+00) (22, -5.75096473693847656250e+01) (23, -6.22210884094238281250e+01) (24, 1.01807670593261718750e+01) (25, -5.93443536758422851562e+00) (26, -2.76603400707244873047e-01) (0, 1.99834501743316650391e+00) (1, 1.57483816146850585938e-01) (2, -8.92067241668701171875e+00) (3, -1.13760309219360351562e+01) (4, 5.88289165496826171875e+00) (5, 2.48768925666809082031e+00) (6, -3.46813768148422241211e-01) (7, 5.75209856033325195312e-01) (8, -7.07404899597167968750e+00) (9, 1.67045536041259765625e+01) (10, -5.74701919555664062500e+01) (11, -1.84799587726593017578e+00) (12, 2.61341333389282226562e+00) (13, 1.05570685863494873047e+00) (14, 3.19899415969848632812e+00) (15, 1.87946073710918426514e-02) (16, -1.92003917694091796875e+01) (17, 2.35274717211723327637e-01) (18, 4.05766677856445312500e+00) (19, 6.03521585464477539062e+00) (20, -2.89715933799743652344e+00) (21, -1.40534639358520507812e+01) (22, 1.11438798904418945312e+01) (23, -4.24766998291015625000e+01) (24, 1.17357337474822998047e+00) (25, -3.90709266662597656250e+01) (26, -5.44197037816047668457e-02) (0, 1.07933883666992187500e+02) (1, 6.09640121459960937500e+00) (2, -1.15677937865257263184e-01) (3, 8.78736267089843750000e+01) (4, 2.55386018753051757812e+00) (5, 1.13229209899902343750e+02) (6, -9.29769744873046875000e+01) (7, -2.81768093109130859375e+01) (8, 1.56089410781860351562e+01) (9, -1.64401435852050781250e+01) (10, 1.79746932983398437500e+01) (11, 6.70333003997802734375e+00) (12, 3.68525962829589843750e+01) (13, 3.20427715778350830078e-01) (14, -2.17913246154785156250e+00) (15, 7.19986319541931152344e-01) (16, -2.34703933715820312500e+02) (17, -1.56471514701843261719e+00) (18, -7.70446853637695312500e+01) (19, -1.32786953449249267578e+00) (20, 3.74228210449218750000e+01) (21, -7.97172622680664062500e+01) (22, -1.22856010437011718750e+02) (23, -1.22443344116210937500e+02) (24, 1.54855041503906250000e+02) (25, 4.29410629272460937500e+01) (26, 6.52075767517089843750e-01) (0, 8.11364173889160156250e+00) (1, -2.58307766914367675781e+00) (2, -1.13772830963134765625e+01) (3, -1.64363086223602294922e+00) (4, 1.07966876029968261719e+00) (5, -6.32423305511474609375e+00) (6, -3.39287519454956054688e+00) (7, -3.64844471216201782227e-01) (8, 5.33342361450195312500e+00) (9, -4.26398658752441406250e+00) (10, 5.29165554046630859375e+00) (11, 5.51172304153442382812e+00) (12, 3.13987994194030761719e+00) (13, -6.10805225372314453125e+00) (14, 9.46636581420898437500e+00) (15, -3.96947002410888671875e+00) (16, 1.36962127685546875000e+00) (17, -4.37355327606201171875e+00) (18, -1.31396174430847167969e+00) (19, 2.14370584487915039062e+00) (20, -6.78078603744506835938e+00) (21, -2.82226276397705078125e+00) (22, 5.10598611831665039062e+00) (23, -1.52503299713134765625e+00) (24, 3.22676849365234375000e+00) (25, -2.76508927345275878906e+00) (26, -3.05221140384674072266e-01) (0, 3.16588610410690307617e-01) (1, 6.34972453117370605469e-01) (2, 1.08226656913757324219e-01) (3, -4.12334442138671875000e+00) (4, -2.77029895782470703125e+00) (5, -2.63375339508056640625e+01) (6, -8.21144866943359375000e+00) (7, 9.73805665969848632812e-01) (8, 1.59598851203918457031e+00) (9, 1.10151300430297851562e+01) (10, 1.30324411392211914062e+01) (11, 1.55910015106201171875e+00) (12, 4.67597532272338867188e+00) (13, 3.77474570274353027344e+00) (14, -4.75525569915771484375e+00) (15, 2.19081729650497436523e-01) (16, 5.98758363723754882812e+00) (17, 1.16788053512573242188e+00) (18, -1.06159610748291015625e+01) (19, 4.71350765228271484375e+00) (20, -6.06250226497650146484e-01) (21, -8.05376911163330078125e+00) (22, -1.60165443420410156250e+01) (23, -1.77653751373291015625e+01) (24, 7.47756910324096679688e+00) (25, -1.10293340682983398438e+01) (26, 4.33442622423171997070e-01) (0, -8.21699947118759155273e-02) (1, -4.77383880615234375000e+01) (2, 6.18792712688446044922e-01) (3, 1.44494218826293945312e+01) (4, -2.23451328277587890625e+00) (5, -1.12356117248535156250e+02) (6, -1.62061294555664062500e+02) (7, 1.05352497100830078125e+01) (8, 5.18948376178741455078e-01) (9, 9.86164016723632812500e+01) (10, 1.61022415161132812500e+02) (11, 5.61173677444458007812e-01) (12, 7.21754372119903564453e-01) (13, -7.63435077667236328125e+00) (14, 1.20666131973266601562e+01) (15, -3.80034112930297851562e+00) (16, -2.52921333312988281250e+01) (17, 1.86918330192565917969e+00) (18, 4.20008735656738281250e+01) (19, 1.28624105453491210938e+00) (20, 1.91286849975585937500e+01) (21, -3.28955230712890625000e+01) (22, 1.50000000000000000000e+03) (23, 1.36918563842773437500e+02) (24, 1.74626449584960937500e+02) (25, -1.17162872314453125000e+02) (26, 5.59661149978637695312e-01) (0, -1.46697306632995605469e+00) (1, 6.72919929027557373047e-01) (2, -2.35699024200439453125e+01) (3, -7.71211671829223632812e+00) (4, -5.26483297348022460938e+00) (5, -8.55569839477539062500e-01) (6, 3.36701941490173339844e+00) (7, -4.40052360296249389648e-01) (8, -1.23906259536743164062e+01) (9, -7.07774047851562500000e+01) (10, 3.23088035583496093750e+01) (11, -2.95752029418945312500e+01) (12, 3.58685340881347656250e+01) (13, -1.75621070861816406250e+01) (14, -4.04512315988540649414e-01) (15, -2.20293685793876647949e-01) (16, -1.72001197934150695801e-01) (17, 2.01815292239189147949e-01) (18, -8.33034142851829528809e-02) (19, -3.99152845144271850586e-01) (20, -2.19174919128417968750e+01) (21, 3.94383049011230468750e+01) (22, 2.86100959777832031250e+00) (23, 8.66283645629882812500e+01) (24, -1.00604132080078125000e+03) (25, 1.08278457641601562500e+02) (26, -2.92108565568923950195e-01) (0, -9.27160930633544921875e+00) (1, -7.08952569961547851562e+00) (2, -1.52347059249877929688e+01) (3, -5.49457168579101562500e+00) (4, 1.23368310928344726562e+00) (5, 2.36124877929687500000e+01) (6, 7.43112945556640625000e+00) (7, -1.88879215717315673828e+00) (8, 1.96168270111083984375e+01) (9, -1.61357250213623046875e+01) (10, 4.68407478332519531250e+01) (11, 4.10442495346069335938e+00) (12, -2.76847910881042480469e+00) (13, 5.40600180625915527344e-01) (14, -1.30741047859191894531e+00) (15, 3.58743667602539062500e+00) (16, -3.50077819824218750000e+01) (17, -3.67508602142333984375e+00) (18, -6.22959017753601074219e-01) (19, 2.08307504653930664062e+00) (20, 3.81931924819946289062e+00) (21, 5.54509878158569335938e+00) (22, -9.74357986450195312500e+00) (23, 2.46152862548828125000e+02) (24, -1.90980052947998046875e+01) (25, 2.17822027206420898438e+00) (26, 5.34677244722843170166e-02) (27, 2.46404910087585449219e+00) (28, 1.69975128173828125000e+01) (29, -3.22485387325286865234e-01) (30, 1.37904000282287597656e+00) (31, 9.41206073760986328125e+00) (32, 8.48822534084320068359e-01) (33, -6.41564655303955078125e+00) (34, -3.93405437469482421875e+00) (35, -2.86217403411865234375e+01) (36, -1.44491329193115234375e+01) (37, -1.31211972236633300781e+00) (38, 1.00513482093811035156e+00) (39, -1.36559939384460449219e+00) (40, -2.54080295562744140625e-01) (27, 1.05573379993438720703e+00) (28, -1.60215389728546142578e+00) (29, -3.86062294244766235352e-01) (30, -6.74806308746337890625e+00) (31, 1.59610843658447265625e+00) (32, 8.01912963390350341797e-01) (33, 2.60640233755111694336e-01) (34, 2.16918349266052246094e+00) (35, 1.27821321487426757812e+01) (36, -1.33808326721191406250e+01) (37, 2.19953823089599609375e+00) (38, 5.39810180664062500000e+00) (39, -3.39245349168777465820e-02) (40, -3.18875730037689208984e-01) (27, 3.01263961791992187500e+01) (28, -2.78986024856567382812e+00) (29, -3.81501108407974243164e-01) (30, 9.15985202789306640625e+00) (31, -2.18258070945739746094e+00) (32, 8.19836676120758056641e-01) (33, -4.33984565734863281250e+00) (34, -2.97096633911132812500e+00) (35, 1.73193168640136718750e+01) (36, 5.34410142898559570312e+00) (37, -4.14608478546142578125e+00) (38, 1.44989180564880371094e+00) (39, 2.20136260986328125000e+00) (40, -3.69858890771865844727e-01) (27, 1.08785070478916168213e-01) (28, 1.56756620407104492188e+01) (29, -7.62657672166824340820e-02) (30, -1.08287096023559570312e+00) (31, 1.53738203048706054688e+01) (32, 8.54940116405487060547e-01) (33, -5.44085836410522460938e+00) (34, 4.02270030975341796875e+00) (35, -1.20944566726684570312e+01) (36, 3.79637184143066406250e+01) (37, -7.82808065414428710938e-01) (38, 2.80151832848787307739e-02) (39, -3.16207265853881835938e+00) (40, -2.73241519927978515625e-01) (27, 5.55297434329986572266e-01) (28, 7.31822681427001953125e+00) (29, -1.01844489574432373047e+00) (30, 1.02231788635253906250e+00) (31, 1.01922237873077392578e+00) (32, 7.87360727787017822266e-01) (33, 1.58421945571899414062e+01) (34, 2.63341760635375976562e+00) (35, 1.20769376754760742188e+01) (36, -2.26074123382568359375e+00) (37, -1.28843700885772705078e+00) (38, 5.57439565658569335938e+00) (39, 1.00773029327392578125e+01) (40, -2.77378487586975097656e+00) (27, 1.32600641250610351562e+00) (28, -7.08744955062866210938e+00) (29, -6.12957417964935302734e-01) (30, -1.96956968307495117188e+00) (31, 5.28789043426513671875e-01) (32, 1.51467704772949218750e+01) (33, 2.85570359230041503906e+00) (34, 1.41598269343376159668e-01) (35, -2.04736061096191406250e+01) (36, 1.18396031856536865234e+00) (37, 8.08213901519775390625e+00) (38, 9.32740211486816406250e-01) (39, 1.05581026077270507812e+01) (40, -3.46973687410354614258e-01) (27, -5.26108741760253906250e-01) (28, -3.82556152343750000000e+00) (29, -6.77290439605712890625e-01) (30, 9.92269802093505859375e+00) (31, 7.25817680358886718750e-01) (32, -3.08264374732971191406e-01) (33, 4.19175815582275390625e+00) (34, -3.31742310523986816406e+00) (35, -2.56081771850585937500e+01) (36, 2.51966977119445800781e+00) (37, -6.16927957534790039062e+00) (38, 2.78635168075561523438e+00) (39, -2.47005138397216796875e+01) (40, -1.91994547843933105469e-01) 
